{"type":"LSTMTimeStep","options":{"inputSize":1,"inputRange":0,"hiddenLayers":[20],"outputSize":1,"decayRate":0.999,"smoothEps":1e-8,"regc":0.000001,"clipval":5,"maxPredictionLength":100,"dataFormatter":{"indexTable":{},"characterTable":{},"characters":[],"specialIndexes":[]}},"hiddenLayers":[{"inputMatrix":{"rows":20,"columns":1,"weights":[-3.72172212600708,10.60202407836914,6.487879276275635,18.062549591064453,46.18603515625,36.230594635009766,16.733230590820312,65.34073638916016,14.701116561889648,24.32857894897461,-24.84248924255371,-9.015289306640625,18.144001007080078,-38.080596923828125,-9.476225852966309,-0.32528117299079895,12.434993743896484,-16.85968017578125,53.785804748535156,-0.32517144083976746]},"inputHidden":{"rows":20,"columns":20,"weights":[37.222469329833984,-5.962881565093994,-13.081917762756348,-11.989213943481445,3.9249227046966553,24.541522979736328,10.883423805236816,-8.912898063659668,-4.105947017669678,9.139784812927246,16.616228103637695,3.9266176223754883,-2.259413003921509,21.748287200927734,9.953664779663086,-0.02176830731332302,20.359596252441406,-19.574485778808594,-6.594137191772461,-0.024522291496396065,-30.755535125732422,-15.03045654296875,-16.628637313842773,0.7143282890319824,6.321540355682373,3.5866482257843018,-10.446601867675781,-4.605364799499512,2.69497013092041,-20.23488998413086,0.9527835249900818,8.56258487701416,8.444995880126953,-0.7010574340820312,-8.966978073120117,-0.0153349032625556,2.2989161014556885,8.571260452270508,-3.983731746673584,-0.013934076763689518,15.147492408752441,-8.499576568603516,11.279637336730957,16.871719360351562,-19.96645736694336,10.307122230529785,12.281837463378906,-0.05762702226638794,-21.504688262939453,-1.7747089862823486,9.22940444946289,-4.0912604331970215,16.196468353271484,-8.161809921264648,11.188350677490234,-0.013547628186643124,1.3483917713165283,-15.902003288269043,-4.627232074737549,-0.005424661561846733,-3.921159505844116,-0.16895101964473724,-1.2458133697509766,15.232555389404297,-4.672229766845703,0.5826059579849243,-23.047945022583008,6.383781433105469,11.067849159240723,5.960555553436279,-15.375021934509277,0.410606324672699,-39.17949295043945,1.9315627813339233,-0.10134357213973999,-0.014368989504873753,7.392879486083984,-10.987455368041992,14.132438659667969,-0.00744381919503212,5.008918762207031,-4.4790191650390625,41.384864807128906,0.9273346066474915,2.2425081729888916,6.136847496032715,23.345962524414062,6.81500244140625,0.6301133632659912,-3.4623172283172607,-17.816940307617188,5.634779453277588,-4.916249752044678,-1.686051368713379,8.211152076721191,-0.006272037513554096,10.986001968383789,-12.046843528747559,-3.7455902099609375,-0.006696346681565046,9.151061058044434,-9.928071022033691,12.370576858520508,4.445253372192383,5.219236850738525,15.901740074157715,3.240344762802124,-8.408031463623047,0.9786925911903381,0.3215353488922119,8.179581642150879,-0.6761086583137512,0.591021716594696,5.444393634796143,-8.14835262298584,-0.007760032545775175,-5.12225866317749,17.002803802490234,-9.562530517578125,-0.003805910237133503,0.5122801661491394,-14.194628715515137,3.2723679542541504,-0.2866726219654083,1.9485456943511963,4.069301605224609,-12.626856803894043,-5.960357666015625,2.8603200912475586,-7.174309253692627,-5.205657958984375,-6.791667938232422,3.1173839569091797,17.001625061035156,-21.717918395996094,-0.002395596355199814,49.956207275390625,5.141814231872559,14.933837890625,-0.002948576817288995,14.820277214050293,-3.8255648612976074,11.969541549682617,4.2018022537231445,-6.92367696762085,19.59258270263672,10.0101318359375,-1.6231646537780762,-16.52263641357422,-0.8936033844947815,4.142186641693115,-2.4415619373321533,-4.3001933097839355,4.957404136657715,-10.417753219604492,-0.022372160106897354,3.5619943141937256,5.7900776863098145,1.2651066780090332,-0.022060902789235115,-5.430808067321777,-24.645347595214844,11.168466567993164,20.25209617614746,-1.5534300804138184,11.82326602935791,-29.551240921020508,5.772697448730469,-1.363904356956482,-23.05152702331543,-1.9591156244277954,4.726137161254883,8.582304000854492,-5.918465614318848,-14.825400352478027,-0.012282378040254116,12.566985130310059,-0.393612802028656,4.168399810791016,-0.011897165328264236,-6.576259613037109,0.9740813970565796,1.8877122402191162,-6.370467662811279,7.184842109680176,-30.440401077270508,3.6142544746398926,2.010983467102051,9.632171630859375,0.4824604392051697,-74.93816375732422,3.061044931411743,-1.304951548576355,6.152496337890625,-4.179047584533691,0.003599183401092887,0.455131471157074,2.7379393577575684,0.03991134837269783,0.003703581402078271,-5.087843418121338,-10.30431842803955,-1.7918766736984253,-5.761089324951172,3.671963691711426,6.597233772277832,1.189990520477295,2.638314962387085,4.892408847808838,26.053424835205078,-22.092302322387695,-7.941974639892578,-15.389253616333008,-2.886902332305908,4.297738552093506,-0.010413933545351028,-38.12627029418945,-9.726886749267578,-17.81549644470215,-0.008126100525259972,-15.260756492614746,-4.834578990936279,2.90350341796875,15.724074363708496,-1.1488789319992065,4.852805137634277,-1.2322708368301392,-19.0164737701416,-1.4757558107376099,-0.07690649479627609,4.046077251434326,19.151844024658203,-8.242085456848145,26.039974212646484,0.4752676486968994,0.007642948534339666,0.857692301273346,7.235597610473633,5.722929954528809,0.0016993762692436576,-2.416393280029297,3.618185043334961,4.07016134262085,-2.052929401397705,-13.997560501098633,-17.04537582397461,-3.563236951828003,6.947407245635986,-12.159989356994629,7.194777488708496,-35.28888702392578,3.916741132736206,-10.068875312805176,-32.575897216796875,1.5396676063537598,-0.004704107064753771,-49.49011993408203,-4.3538103103637695,-9.368234634399414,-0.009615997783839703,6.704334735870361,-3.209414482116699,0.9087508320808411,-14.676538467407227,1.1227375268936157,-5.019446849822998,2.1881461143493652,-2.104546546936035,0.30828407406806946,-0.7824497222900391,5.501065254211426,-21.229345321655273,-14.529797554016113,-0.6170991063117981,-12.149826049804688,0.027482766658067703,-13.43904972076416,-4.459273815155029,-4.576805114746094,0.023767348378896713,5.579985618591309,-1.9974640607833862,0.21224680542945862,-11.292741775512695,-3.8845300674438477,18.436840057373047,-11.505575180053711,-4.461184024810791,-6.36956262588501,7.073915481567383,8.919455528259277,-9.96335220336914,9.90078353881836,2.224820137023926,3.6900477409362793,0.004157031420618296,-3.744785785675049,1.1320679187774658,0.8060545325279236,0.007867167703807354,-0.07307476550340652,-0.013625402934849262,-0.16241711378097534,0.06776902079582214,-0.2971440255641937,0.03180880472064018,0.011544862762093544,0.16653387248516083,0.03441300615668297,-0.05877847224473953,0.10282126069068909,0.27110183238983154,-0.008757918141782284,0.12253835797309875,0.08341731131076813,0.00014170416397973895,0.19841596484184265,0.05567542091012001,0.12800423800945282,-0.0002547154435887933,2.114577531814575,0.8107736706733704,4.419819355010986,-4.917015552520752,-1.3328391313552856,-1.2019137144088745,1.7186657190322876,5.180043697357178,-4.371805191040039,1.1129145622253418,1.0707429647445679,-4.342565059661865,0.9441462159156799,-13.877117156982422,-2.101942300796509,0.001275772461667657,3.0713579654693604,1.5164047479629517,1.0516232252120972,-0.008067666552960873,5.708024978637695,-14.822684288024902,4.3685622215271,-2.604825735092163,3.7077138423919678,-2.810664653778076,23.990121841430664,2.8740789890289307,-1.915839672088623,3.09682559967041,-1.088777780532837,-6.349211692810059,13.8130521774292,-1.717739224433899,0.11560408025979996,-0.00920998863875866,12.437697410583496,-6.8115105628967285,-3.2323520183563232,-0.016557473689317703,-4.171148777008057,-1.1788774728775024,5.399489879608154,4.865991592407227,-6.0137481689453125,9.542898178100586,1.2594804763793945,10.883761405944824,1.910138487815857,11.395490646362305,0.8386114835739136,-2.107457160949707,3.489471673965454,-7.176598072052002,9.118988990783691,0.0026111577171832323,1.0163874626159668,3.8511714935302734,9.82097339630127,0.0032854233868420124,-0.07391522079706192,-0.013626557774841785,-0.16001619398593903,0.07315459847450256,-0.292537659406662,0.03339780867099762,0.01164501067250967,0.1696258932352066,0.03615853190422058,-0.059927232563495636,0.10590706020593643,0.27193698287010193,-0.008001284673810005,0.1266089677810669,0.08309173583984375,0.00011869629088323563,0.20008665323257446,0.05772283300757408,0.1278553605079651,-0.0005520602571777999]},"inputBias":{"rows":20,"columns":1,"weights":[6.123706340789795,-5.776731491088867,-7.416726589202881,-4.681216716766357,-0.20034891366958618,-4.476798057556152,-6.339763164520264,-3.927802324295044,-0.20851926505565643,1.4398305416107178,-2.2397356033325195,14.040329933166504,-2.7827906608581543,-7.721286296844482,-4.797959327697754,-2.775362253189087,-14.784367561340332,-3.518632411956787,-3.8534092903137207,-2.775813102722168]},"forgetMatrix":{"rows":20,"columns":1,"weights":[-10.228752136230469,-3.6684088706970215,4.0035080909729,-4.099705696105957,2.6132194995880127,-0.5471809506416321,4.097620964050293,94.86058044433594,-13.542854309082031,-0.3949378430843353,3.1622676849365234,-11.060722351074219,7.514578342437744,-0.4747312068939209,-45.990535736083984,-0.003001454984769225,-1.7872035503387451,1.3850431442260742,-46.89482116699219,-0.0031296713277697563]},"forgetHidden":{"rows":20,"columns":20,"weights":[10.355391502380371,0.008108077570796013,-7.988880157470703,17.824750900268555,-0.7614908218383789,-2.083950996398926,4.467660427093506,19.37462615966797,-12.302474975585938,-0.5283600687980652,-3.893686056137085,5.822103023529053,3.549361228942871,-1.700134515762329,10.19548511505127,-0.007949450053274632,-0.03473242372274399,-0.3271382451057434,0.2030951976776123,-0.0017521472182124853,-0.00669082161039114,-0.6278297305107117,-1.393201231956482,-0.32582804560661316,-2.996551275253296,0.00396546209231019,-0.016184275969862938,-0.1975555568933487,0.32147616147994995,-1.0204521417617798,-0.05209413170814514,6.4518723487854,0.05493680387735367,-0.1936437338590622,0.19903993606567383,-0.0005832511815242469,2.8059744834899902,-0.028359411284327507,2.0393824577331543,0.0007387569639831781,6.802206516265869,7.220309257507324,-0.363294780254364,10.686480522155762,-6.819924354553223,4.220547676086426,25.44845962524414,-6.08000373840332,-35.998966217041016,30.452720642089844,-9.222037315368652,-2.1460297107696533,-11.673264503479004,-1.670236587524414,27.85323715209961,0.006344636436551809,-5.133852005004883,-0.4648391008377075,8.531017303466797,0.0022490888368338346,-21.37954330444336,1.2285362482070923,13.723048210144043,-9.684271812438965,1.305121660232544,-3.173844575881958,-7.1057209968566895,9.387591361999512,-5.4336652755737305,-4.597111225128174,-4.565557956695557,-8.883466720581055,-11.985062599182129,-0.12495184689760208,-1.0902408361434937,0.0028057084418833256,-9.21031379699707,0.44691285490989685,-4.14988374710083,0.0028899891767650843,-1.7868642807006836,-0.4423889219760895,-33.16782760620117,-19.32169532775879,-0.8282076120376587,-1.531248688697815,-6.719193935394287,-2.003554105758667,-16.235624313354492,-4.220203399658203,-2.172048807144165,-3.6991817951202393,3.9738945960998535,-2.904906749725342,-6.480228424072266,0.003058957401663065,13.924817085266113,-0.7717111110687256,17.969682693481445,-0.00003291177563369274,-13.867064476013184,-0.003497646888718009,0.5898124575614929,2.667273998260498,-1.3259645700454712,3.1384127140045166,0.41942545771598816,0.6891579627990723,-2.6192715167999268,0.183570995926857,0.45320168137550354,3.307246446609497,0.46605294942855835,1.9972474575042725,-13.57093620300293,-0.0015788499731570482,0.009527535177767277,4.111680030822754,-0.12573285400867462,-0.0006838974077254534,-8.537910461425781,-0.15645767748355865,3.6137096881866455,-14.6267671585083,-5.254675388336182,1.8638715744018555,-11.814826965332031,-8.77427864074707,-11.697981834411621,-3.6252424716949463,5.522834777832031,-0.5872873067855835,-2.8444743156433105,3.4684994220733643,2.0274410247802734,0.007048006169497967,-3.938532829284668,-5.62992525100708,1.559199333190918,0.004424320999532938,-17.263065338134766,-3.8672878742218018,17.84019660949707,-10.661128044128418,-10.20428466796875,6.574006080627441,22.86226463317871,-4.47946834564209,-0.9478307366371155,10.234803199768066,4.002884864807129,-11.675832748413086,-5.8905205726623535,-15.984169006347656,-13.4037446975708,-0.013232219964265823,-2.277737617492676,6.236840724945068,12.649676322937012,-0.011534311808645725,1.2256357669830322,-2.3805737495422363,31.770090103149414,16.569421768188477,-6.550475120544434,-1.0988081693649292,-0.9495375156402588,-13.42813777923584,-5.12944221496582,15.446537971496582,-0.3537818491458893,-3.0889837741851807,3.5437214374542236,0.06790843605995178,-36.531131744384766,-0.002486523939296603,23.58933448791504,0.03502141684293747,15.470577239990234,-0.002080116653814912,0.4092983305454254,-0.08050651103258133,-0.013397622853517532,0.0026277482975274324,-0.024233749136328697,0.08994864672422409,0.10504651814699173,0.5016345977783203,0.013607600703835487,0.02456965483725071,0.4598449468612671,0.8382336497306824,0.006665660534054041,-0.5254321694374084,0.3866443634033203,-0.00007584870036225766,0.0030670210253447294,-0.17577752470970154,-0.03234434127807617,-0.0000628482157480903,12.365489959716797,-0.07356961071491241,-0.5926687121391296,1.1835389137268066,-0.8911888599395752,6.144331932067871,2.615579843521118,-3.6849069595336914,-2.6391448974609375,0.14530111849308014,-11.771212577819824,3.0161001682281494,1.79888916015625,-14.210079193115234,21.2314395904541,-0.0035508270375430584,-0.5980474948883057,-23.346515655517578,-1.261596918106079,-0.002471219515427947,-6.623281955718994,0.868222713470459,4.088144302368164,5.859807968139648,-5.005533695220947,0.4898439645767212,2.637289047241211,-3.222332000732422,-18.12862205505371,6.919491291046143,1.3859448432922363,7.985660076141357,-5.50547456741333,8.10912036895752,0.22923198342323303,-0.0008020532550290227,-7.866450786590576,-0.32167789340019226,-12.496610641479492,-0.0006098765879869461,5.319632053375244,-0.3392592966556549,-19.223554611206055,-16.32375144958496,-2.089820623397827,3.8700544834136963,2.33638596534729,-1.1777061223983765,-20.599472045898438,-7.193453311920166,3.7434303760528564,1.283793568611145,0.09267359972000122,3.669271230697632,3.500243902206421,0.0022141439840197563,12.652953147888184,0.3159494400024414,19.271774291992188,0.0024925849866122007,37.279571533203125,-0.021380286663770676,6.742272853851318,15.206754684448242,-0.06558298319578171,-3.089193820953369,39.97222900390625,0.973677396774292,1.9184478521347046,0.01788504794239998,-8.440072059631348,2.5043954849243164,5.401153564453125,-8.787879943847656,5.5427470207214355,-0.0011563178850337863,-0.6791062951087952,-11.569122314453125,-0.4592408835887909,-0.0006952219409868121,0.861840546131134,-0.05653831735253334,-11.518949508666992,-15.39897632598877,1.4357044696807861,-2.174109697341919,-3.9786264896392822,6.519988536834717,9.354101181030273,-1.428213357925415,15.37263011932373,-11.078753471374512,12.0931396484375,0.3987225890159607,-1.920300006866455,-0.0039037202950567007,-13.667187690734863,-0.6111257672309875,-2.615769386291504,-0.0029168524779379368,-0.0009554054704494774,-0.0003578415489755571,-0.000766230165027082,-0.0007021534256637096,-0.0016358684515580535,0.0005615758127532899,0.00014794577145949006,0.0017199614085257053,0.0002746859972830862,-0.0002575852267909795,0.001777178724296391,0.0034738939721137285,-0.0005310260457918048,0.0023980136029422283,0.0004864109505433589,-0.00005677598892361857,0.00047995668137446046,0.001096128486096859,0.0008240324095822871,-0.00021603818458970636,-0.0012991067487746477,-0.21624013781547546,-0.5505124926567078,1.8870035409927368,0.4663437306880951,0.0044324398040771484,-0.012308039702475071,-0.33028143644332886,2.029604434967041,-0.17556780576705933,0.0003989888064097613,1.6424027681350708,0.14142823219299316,0.022612031549215317,-0.5188360214233398,-0.00078424415551126,2.2775115966796875,0.0006554029532708228,0.729775607585907,0.0005788200651295483,-8.081814765930176,-0.0006051893578842282,-0.4351295530796051,-4.865945339202881,0.747767448425293,-0.9064704179763794,-2.942972183227539,1.600712537765503,3.368051290512085,-0.002818902488797903,7.019802570343018,0.8899455666542053,-0.32934334874153137,2.0307512283325195,-10.299182891845703,0.00016793006216175854,0.0007786609930917621,0.03541448339819908,-0.15495862066745758,0.0013550068251788616,0.4155733585357666,16.779651641845703,-6.462634086608887,-23.44685935974121,-8.984976768493652,-0.48904427886009216,6.477787971496582,2.952179193496704,4.531935214996338,17.483688354492188,-5.622088432312012,14.291396141052246,-26.530338287353516,0.007123937364667654,28.97030258178711,-0.000572378106880933,-14.659555435180664,-0.30364471673965454,-5.545623302459717,0.0004050817515235394,-0.0008881998364813626,-0.0001526522682979703,-0.0010522697120904922,-0.00015783484559506178,-0.0011068742023780942,0.0005055294604972005,0.00034414412220939994,0.0013483419315889478,0.0003309907333459705,0.000011361325050529558,0.0018308724975213408,0.0033429551403969526,-0.00045347909326665103,0.002176485024392605,0.00037675941712222993,-0.000018514005205361173,0.0004697898402810097,0.0008894513011910021,0.0006462876917794347,-0.00012736923235934228]},"forgetBias":{"rows":20,"columns":1,"weights":[0,0,0,0,0,0,0,0,0,0,0,0,0,0,0,0,0,0,0,0]},"outputMatrix":{"rows":20,"columns":1,"weights":[-14.154702186584473,0.1282161921262741,0.5581540465354919,-9.148550987243652,14.795157432556152,-11.654120445251465,-4.845046043395996,-1.0135749578475952,-2.795309066772461,13.25082778930664,32.94234848022461,-7.212099552154541,-3.8101720809936523,-17.24937629699707,46.39326095581055,-0.32985028624534607,13.41556167602539,-9.17823314666748,6.353403568267822,-0.32915353775024414]},"outputHidden":{"rows":20,"columns":20,"weights":[-2.747049331665039,8.162786483764648,-1.9385892152786255,4.390812873840332,-1.5186185836791992,-12.638251304626465,0.34546422958374023,-2.419175386428833,-21.665430068969727,7.805325508117676,-14.87253189086914,-6.310747146606445,6.991916656494141,-3.77616548538208,-29.59111976623535,-0.0013035652227699757,0.5011410713195801,14.599431991577148,14.791964530944824,-0.002928802976384759,3.884340763092041,1.9182194471359253,3.265408754348755,-8.693133354187012,2.1308131217956543,10.2466459274292,7.403599262237549,2.5939908027648926,-12.450444221496582,30.24352264404297,10.861692428588867,-8.036870956420898,4.185298919677734,1.896586537361145,-2.5771093368530273,0.008927904069423676,-14.34881591796875,7.879852771759033,-2.1000030040740967,0.014970056712627411,-8.441522598266602,-15.55400276184082,-7.258155345916748,0.5241312980651855,0.994771420955658,-5.608034133911133,-3.683061361312866,-10.193514823913574,18.172164916992188,7.016263961791992,-2.686162233352661,1.6316102743148804,1.9823541641235352,1.0759177207946777,-13.340255737304688,0.011171901598572731,3.9363019466400146,1.8812177181243896,7.439304351806641,0.01055833138525486,7.414538860321045,0.21738676726818085,0.7368467450141907,-1.262466549873352,4.276386260986328,-5.407133102416992,4.001871109008789,2.1495285034179688,-14.810322761535645,5.0154500007629395,-9.466334342956543,-5.735048770904541,-6.558954238891602,8.125602722167969,-23.62017822265625,-0.004837933462113142,-7.530893802642822,-6.802386283874512,5.149914741516113,0.002135029761120677,18.549863815307617,12.820120811462402,-6.099609851837158,3.317930221557617,11.32544994354248,-0.08739259093999863,-11.34646224975586,-12.745882987976074,20.28487205505371,-12.946935653686523,1.9436801671981812,-15.608369827270508,13.502474784851074,-1.842159390449524,-37.517738342285156,0.007958875969052315,-8.28441333770752,14.388126373291016,6.431016445159912,0.00889250636100769,4.5971999168396,-6.5203680992126465,-8.419581413269043,1.0991629362106323,6.521718502044678,-0.2457924336194992,-22.182445526123047,-5.627223968505859,-8.635457992553711,-6.134007930755615,-20.392745971679688,-12.06824779510498,17.07379913330078,7.527619361877441,-2.729590654373169,-0.016691256314516068,14.552549362182617,-6.15403938293457,7.520275115966797,-0.013298962265253067,15.478558540344238,9.915388107299805,4.334637641906738,13.855913162231445,17.622289657592773,-22.622053146362305,13.390225410461426,-4.029449462890625,4.805814266204834,-6.258929252624512,-22.828353881835938,-12.060429573059082,8.462028503417969,-20.180618286132812,24.323362350463867,-0.01901625096797943,22.916431427001953,-28.032560348510742,-7.083804607391357,-0.023883944377303123,-10.109468460083008,9.979004859924316,-9.003255844116211,-0.9778143167495728,10.797001838684082,-0.05212652310729027,-16.24593162536621,-13.864253997802734,7.1834635734558105,8.239360809326172,-15.739934921264648,-6.847587585449219,9.7254638671875,5.677680969238281,14.799561500549316,-0.0036371098831295967,11.172063827514648,-12.347024917602539,7.9967875480651855,-0.003579367883503437,26.45614242553711,-12.4373779296875,-7.675882339477539,-12.823729515075684,9.9201078414917,29.553504943847656,8.200950622558594,-14.711551666259766,-0.7447916269302368,16.4127197265625,21.974163055419922,-14.387893676757812,-0.4700324237346649,17.61981964111328,-6.381542682647705,0.01117236539721489,-16.872472763061523,5.076431751251221,-15.17842960357666,0.00991036370396614,-2.034170150756836,14.395355224609375,-18.940975189208984,3.62021803855896,-11.891063690185547,18.608386993408203,4.057947635650635,-13.240206718444824,-15.527434349060059,0.06322643905878067,18.537277221679688,-8.707326889038086,0.44440335035324097,-14.219658851623535,19.750497817993164,0.00039444476715289056,-7.170764446258545,-9.819979667663574,18.504714965820312,-0.005755722522735596,10.750611305236816,-10.288920402526855,-4.1297221183776855,-2.6047089099884033,6.27861213684082,1.3420213460922241,3.1028757095336914,-4.140288829803467,-0.9716746211051941,3.1731648445129395,-13.068365097045898,-6.6848955154418945,18.65715217590332,27.570589065551758,-9.574517250061035,-0.02527659945189953,2.4043540954589844,4.357674598693848,0.5717243552207947,-0.030112722888588905,29.05132293701172,-8.205742835998535,-5.422354698181152,15.050369262695312,-0.714529275894165,5.1731743812561035,3.32601261138916,-0.7244731783866882,-3.9999237060546875,-6.743127346038818,34.08888244628906,-2.138887405395508,24.595115661621094,-11.77221965789795,9.796590805053711,0.014193701557815075,12.950699806213379,8.703699111938477,1.181723952293396,0.020500298589468002,-7.139428615570068,7.1945881843566895,-0.46170559525489807,8.345552444458008,14.839593887329102,5.302099227905273,-13.458111763000488,-15.362946510314941,8.92276382446289,-4.561946392059326,-1.8230094909667969,-12.387629508972168,17.127885818481445,15.957219123840332,-5.4788665771484375,0.010937793180346489,30.80352783203125,4.8455810546875,3.748793363571167,0.0039050825871527195,16.367509841918945,-11.376222610473633,8.05912971496582,8.678803443908691,4.335363388061523,-9.948882102966309,20.7077579498291,-1.8212319612503052,-8.479326248168945,0.03510820120573044,16.202144622802734,-2.0177910327911377,-18.676252365112305,-16.054819107055664,-11.893584251403809,-0.03327473998069763,-2.443269729614258,5.636484622955322,-3.8050172328948975,-0.03176700696349144,2.239156484603882,14.147200584411621,18.97219467163086,15.273941040039062,-8.80933952331543,-0.3312528729438782,-6.602281093597412,1.7516852617263794,0.29077473282814026,5.6632208824157715,-1.741224765777588,2.79953932762146,-5.184048652648926,-8.075935363769531,-7.8105788230896,-0.0010463915532454848,-8.43286418914795,3.8342719078063965,1.3766759634017944,-0.005536289419978857,-0.07620547711849213,-0.01377782505005598,-0.16342392563819885,0.06814427673816681,-0.2997804582118988,0.032442815601825714,0.01097028236836195,0.1695169061422348,0.03375167399644852,-0.05918119102716446,0.10503417998552322,0.277177095413208,-0.009225470945239067,0.12626200914382935,0.0836481973528862,-0.000022229762180359103,0.198968768119812,0.05704425647854805,0.1285717785358429,-0.00022051972337067127,6.148312568664551,-10.006985664367676,-26.560640335083008,2.1220669746398926,4.054218292236328,-4.42666482925415,3.5608670711517334,2.2939441204071045,5.839848518371582,-1.2912449836730957,1.9603296518325806,-4.410065174102783,-0.3557246923446655,-12.333240509033203,0.12273713201284409,-0.005115162115544081,11.423442840576172,-3.3284153938293457,-16.826738357543945,-0.006114634219557047,-11.670675277709961,-20.29972267150879,-3.4739036560058594,-13.04707145690918,2.4598050117492676,-10.796307563781738,-8.028703689575195,-1.6508859395980835,29.452556610107422,-1.4897540807724,3.3137807846069336,-11.349336624145508,-17.519691467285156,-11.576789855957031,-6.352760314941406,-0.007912656292319298,7.941938877105713,12.836750030517578,-8.197090148925781,-0.009548822417855263,-0.56773442029953,-6.8616623878479,-5.373743534088135,-3.7592060565948486,-6.785158157348633,3.4722602367401123,12.146190643310547,-12.561236381530762,-1.416106104850769,7.685783386230469,-2.2807743549346924,-1.7551850080490112,-17.221826553344727,9.021191596984863,5.608186721801758,0.021248511970043182,-17.945846557617188,-2.4623095989227295,-11.968331336975098,0.011433078907430172,-0.0770474299788475,-0.013671434484422207,-0.16115373373031616,0.07372976839542389,-0.2956048846244812,0.03407090902328491,0.011056830175220966,0.1725056767463684,0.03587586060166359,-0.06006431579589844,0.1084987074136734,0.2773621380329132,-0.008800048381090164,0.12989242374897003,0.08308879286050797,0.0001378852903144434,0.20077285170555115,0.05889791622757912,0.1283329427242279,-0.0004258807166479528]},"outputBias":{"rows":20,"columns":1,"weights":[-2.760014772415161,-2.491605520248413,5.124527931213379,2.3198366165161133,-18.7630672454834,-7.177018165588379,-9.398932456970215,-5.625685214996338,-10.531861305236816,-19.913848876953125,-8.547367095947266,15.301529884338379,-8.671751022338867,0.2203359752893448,4.105742454528809,-2.7754101753234863,-10.883149147033691,-8.811755180358887,-7.5689496994018555,-2.775810956954956]},"cellActivationMatrix":{"rows":20,"columns":1,"weights":[-23.736576080322266,36.514766693115234,11.78227424621582,8.84208869934082,36.65495681762695,14.499687194824219,-19.830245971679688,-14.404191970825195,-5.868403911590576,9.465871810913086,-49.86705780029297,-71.26360321044922,15.95191764831543,-50.231101989746094,-15.074302673339844,-0.004790371283888817,-6.399860382080078,-5.342413425445557,-31.634864807128906,-0.01362932100892067]},"cellActivationHidden":{"rows":20,"columns":20,"weights":[-8.752100944519043,8.290668487548828,-3.5438733100891113,2.825024366378784,6.222499847412109,-5.798564434051514,19.308298110961914,4.329563140869141,-17.615489959716797,1.1097854375839233,-11.365309715270996,0.17873908579349518,5.615402698516846,-1.3925048112869263,3.668111801147461,-0.00020415725884959102,7.786953449249268,-9.475502967834473,19.1682186126709,0.00035377987660467625,-18.850955963134766,-2.5630433559417725,-6.713334083557129,1.4387568235397339,-5.463149547576904,-0.10653316229581833,-2.594430685043335,-3.00608491897583,-0.6686961650848389,-4.405492782592773,-28.988874435424805,-2.7404232025146484,-11.792102813720703,-5.166530132293701,9.997694969177246,0.0012537289876490831,-3.6167538166046143,-2.9099700450897217,-2.949626922607422,0.0014561222633346915,-1.181840181350708,-4.218997478485107,11.419174194335938,15.608111381530762,6.993185997009277,-9.551055908203125,-1.799242377281189,-2.2768428325653076,17.883407592773438,-0.4533091187477112,3.928786277770996,-3.401653528213501,1.4732046127319336,-18.11534881591797,-21.803556442260742,0.008581483736634254,-16.376850128173828,12.938754081726074,-2.1306657791137695,0.008699178695678711,4.847304821014404,1.4034050703048706,-7.106500625610352,-11.843060493469238,-5.591168403625488,-4.2267937660217285,25.486154556274414,4.500187873840332,-1.800895094871521,-3.7349460124969482,-2.9215292930603027,1.3888365030288696,4.168388843536377,-7.366221904754639,8.532011032104492,-0.017799586057662964,11.783624649047852,6.975966930389404,-8.433544158935547,-0.026181461289525032,0.9896376132965088,-1.3720216751098633,6.286013126373291,-5.702290058135986,-5.172597885131836,1.2929986715316772,12.07073974609375,6.415441036224365,-10.796765327453613,-3.3174691200256348,-4.458688735961914,3.250427484512329,0.8066443800926208,-2.1015560626983643,7.066869258880615,-0.008068624883890152,6.2911481857299805,-4.291807651519775,16.44841194152832,-0.0068583241663873196,6.488783836364746,-2.323392152786255,-10.105610847473145,-5.022855758666992,1.6793733835220337,-0.7723538279533386,7.473719120025635,1.5541194677352905,6.501620769500732,-10.517157554626465,-16.844106674194336,4.687933921813965,3.9737956523895264,-3.788149833679199,2.2212893962860107,-0.0027530393563210964,25.279720306396484,-2.812264919281006,11.415727615356445,0.005019925534725189,-2.9041059017181396,12.537784576416016,-8.390836715698242,-10.251777648925781,2.218177318572998,0.26555827260017395,-0.8461474180221558,-2.50382399559021,9.133415222167969,-28.738428115844727,-3.3169987201690674,-3.7800755500793457,-4.947362422943115,3.5235819816589355,5.989347457885742,0.015647634863853455,-13.439796447753906,-3.0934300422668457,-7.575126647949219,0.014126141555607319,-2.2875454425811768,-7.819660186767578,3.1672704219818115,8.534689903259277,7.7559895515441895,-4.815727710723877,-0.21963435411453247,-15.25705623626709,2.7716548442840576,-0.3364042639732361,-36.22464370727539,10.613630294799805,0.5742517113685608,13.670698165893555,-8.179428100585938,-0.016554465517401695,2.4115407466888428,13.344586372375488,-2.3867483139038086,-0.020720090717077255,2.2144863605499268,-9.341930389404297,-9.95486068725586,-8.729296684265137,-4.07249641418457,-1.9570635557174683,-5.544173240661621,-7.051023960113525,-4.918560981750488,12.197248458862305,-4.690967082977295,-3.248922824859619,8.087454795837402,-5.372520446777344,-11.024066925048828,-0.007225092500448227,-10.959287643432617,-0.5361348390579224,-3.158698320388794,-0.0013978133210912347,3.7189674377441406,-1.673332691192627,-2.1984641551971436,-1.9458849430084229,-4.111875534057617,11.005621910095215,-4.061164379119873,12.096539497375488,-4.598453521728516,-0.2927957773208618,12.360831260681152,4.810339450836182,2.8606503009796143,-1.4591542482376099,0.5862783193588257,-0.009775949642062187,0.36030659079551697,-10.678688049316406,-1.1523218154907227,-0.01026761345565319,15.085624694824219,23.435033798217773,-5.611798286437988,-3.2603588104248047,1.8142482042312622,0.9376976490020752,1.1928092241287231,-5.450915813446045,1.857724905014038,2.0878310203552246,-0.6316313743591309,0.7533303499221802,4.306701183319092,-17.380970001220703,1.1525981426239014,0.005477766506373882,-3.4158337116241455,-3.862095594406128,1.5283868312835693,0.011480665765702724,-1.1334526538848877,23.172719955444336,4.184606075286865,-2.4006311893463135,3.964472770690918,-1.5496129989624023,-4.568567752838135,-5.06631326675415,-6.683593273162842,1.3403834104537964,-13.376800537109375,-5.371131420135498,3.212338924407959,-10.474693298339844,-9.948966979980469,-0.013639641925692558,2.266432762145996,-8.675812721252441,5.940010070800781,-0.013869114220142365,10.542984008789062,-17.837507247924805,-11.119176864624023,-15.622570037841797,2.6690893173217773,12.733890533447266,2.8303000926971436,-2.3745312690734863,1.1675184965133667,7.808562278747559,14.07816219329834,9.011375427246094,-6.866687774658203,14.788121223449707,5.63803243637085,-0.0032789160031825304,1.8805044889450073,5.072545051574707,2.3482255935668945,-0.0050742002204060555,2.915069341659546,15.745692253112793,5.7855706214904785,-4.822264671325684,11.92299747467041,-4.798279762268066,-0.0856342613697052,-3.759587049484253,0.922920823097229,11.394392013549805,-3.9522457122802734,0.1127232238650322,5.632830619812012,-6.04202938079834,13.945937156677246,0.00334988534450531,-11.175992012023926,-0.643545389175415,-7.991220474243164,0.001656295615248382,-1.0472779273986816,0.870306670665741,-1.893176794052124,-2.4181315898895264,10.043130874633789,-6.291408061981201,9.479640007019043,1.9860519170761108,25.507734298706055,-5.611097812652588,-5.174925327301025,-7.161449909210205,5.832208156585693,-4.864673614501953,-1.4851568937301636,0.008960213512182236,1.0745573043823242,-7.444614887237549,4.807735443115234,0.009626227430999279,0.009477765299379826,0.000019669279936351813,0.018335342407226562,0.011249721050262451,-0.0009844694286584854,0.0037341550923883915,-0.015419741161167622,-0.011655669659376144,0.006688263732939959,0.015535525977611542,-0.0021506533958017826,0.010826684534549713,-0.0010490377899259329,0.013658707961440086,-0.012847892008721828,-0.0025925280060619116,-0.018056996166706085,-0.006333232391625643,0.008879486471414566,-0.0015632890863344073,-2.595059394836426,-1.2216429710388184,-0.874052107334137,3.7686538696289062,-1.8401378393173218,0.6895486116409302,-2.131249189376831,-2.5624191761016846,-0.1142164096236229,-0.3845347464084625,-10.460366249084473,-0.4533121883869171,0.4786273241043091,0.4328659474849701,1.3052070140838623,-0.002901580883190036,0.00010334727267036214,5.905880451202393,-0.08081436902284622,-0.0017881215317174792,1.5690555572509766,-1.6341807842254639,1.899420142173767,25.266918182373047,9.813252449035645,0.858253538608551,5.400649070739746,0.011003843508660793,-4.23884916305542,0.11329115182161331,-6.577285289764404,3.4395861625671387,13.233133316040039,-0.7997419834136963,7.624355792999268,0.016103575006127357,-1.0923126935958862,-7.890961170196533,3.283959150314331,0.013413314707577229,-11.101669311523438,-20.394983291625977,-10.43354320526123,19.059579849243164,-7.263796806335449,28.57252311706543,-3.8830320835113525,18.596696853637695,6.248783111572266,-5.872171401977539,31.457359313964844,35.42075729370117,5.5984272956848145,5.845773220062256,-4.793273448944092,0.004911981988698244,16.593900680541992,-4.277346611022949,10.665823936462402,0.006381076294928789,0.0066183824092149734,-0.0027871718630194664,0.020593449473381042,0.03224608302116394,0.004435450304299593,-0.0006580454064533114,-0.011183857917785645,-0.0051182955503463745,0.00808790884912014,0.015626706182956696,-0.007186545990407467,-0.005442460998892784,0.001593788038007915,0.01692952588200569,0.004784635733813047,-0.0011427780846133828,-0.01794963888823986,-0.008117840625345707,0.005305115599185228,-0.002578966086730361]},"cellActivationBias":{"rows":20,"columns":1,"weights":[4.092258930206299,-2.917973756790161,-9.794815063476562,-5.0154924392700195,0.1609741747379303,-0.5853827595710754,0.24067750573158264,7.322103023529053,1.6863958835601807,0.9017248153686523,1.2746938467025757,-5.685272693634033,-0.801621675491333,-21.068740844726562,-3.5794005393981934,0.008317301981151104,0.046898890286684036,0.9660518765449524,33.754398345947266,0.006761148571968079]}}],"outputConnector":{"rows":1,"columns":20,"weights":[-0.9557507038116455,-0.9502577781677246,-0.822449266910553,0.24497711658477783,-0.4385075569152832,-0.8483603000640869,2.015707015991211,1.246463418006897,-0.6714270710945129,0.9213799834251404,1.2405810356140137,0.9023147225379944,-1.14351224899292,1.383724331855774,0.6082215309143066,0.0005054190987721086,0.037953078746795654,0.6161407828330994,0.8664153218269348,0.0010015849256888032]},"output":{"rows":1,"columns":1,"weights":[1.2081239223480225]},"inputLookup":{"DN":0,"YARDLN":1,"DIST":2},"inputLookupLength":3,"outputLookup":{"RUN":0},"outputLookupLength":1}